-365.000000,41.000000,121.932507
-365.000000,50.367347,122.063479
-365.000000,59.734694,122.218903
-365.000000,69.102041,122.398427
-365.000000,78.469388,122.598957
-365.000000,87.836735,122.812018
-365.000000,97.204082,123.019111
-365.000000,106.571429,123.185005
-365.000000,115.938776,123.251603
-365.000000,125.306122,123.139133
-365.000000,134.673469,122.749611
-365.000000,144.040816,121.868496
-365.000000,153.408163,119.676630
-365.000000,162.775510,113.771059
-365.000000,172.142857,100.820877
-365.000000,181.510204,81.609335
-365.000000,190.877551,75.404732
-365.000000,200.244898,95.259549
-365.000000,209.612245,108.462365
-365.000000,218.979592,117.155087
-365.000000,228.346939,122.451360
-365.000000,237.714286,126.132531
-365.000000,247.081633,128.969272
-365.000000,256.448980,131.223778
-365.000000,265.816327,132.928210
-365.000000,275.183673,134.039494
-365.000000,284.551020,134.557849
-365.000000,293.918367,134.579024
-365.000000,303.285714,134.262738
-365.000000,312.653061,133.769445
-365.000000,322.020408,133.220608
-365.000000,331.387755,132.691449
-365.000000,340.755102,132.220410
-365.000000,350.122449,131.821744
-365.000000,359.489796,131.495676
-365.000000,368.857143,131.235213
-365.000000,378.224490,131.030297
-365.000000,387.591837,130.870188
-365.000000,396.959184,130.744745
-365.000000,406.326531,130.645050
-365.000000,415.693878,130.563638
-365.000000,425.061224,130.494508
-365.000000,434.428571,130.433004
-365.000000,443.795918,130.375643
-365.000000,453.163265,130.319924
-365.000000,462.530612,130.264137
-365.000000,471.897959,130.207192
-365.000000,481.265306,130.148477
-365.000000,490.632653,130.087729
-365.000000,500.000000,130.024937
-353.204082,41.000000,121.679343
-353.204082,50.367347,121.826378
-353.204082,59.734694,122.008234
-353.204082,69.102041,122.227602
-353.204082,78.469388,122.485681
-353.204082,87.836735,122.779322
-353.204082,97.204082,123.093459
-353.204082,106.571429,123.384702
-353.204082,115.938776,123.554530
-353.204082,125.306122,123.432693
-353.204082,134.673469,122.896732
-353.204082,144.040816,122.308712
-353.204082,153.408163,121.808700
-353.204082,162.775510,117.466783
-353.204082,172.142857,89.358429
-353.204082,181.510204,71.569903
-353.204082,190.877551,73.994266
-353.204082,200.244898,67.771449
-353.204082,209.612245,105.732743
-353.204082,218.979592,117.133998
-353.204082,228.346939,123.166531
-353.204082,237.714286,127.513386
-353.204082,247.081633,131.079724
-353.204082,256.448980,134.105756
-353.204082,265.816327,136.445747
-353.204082,275.183673,137.802990
-353.204082,284.551020,138.077695
-353.204082,293.918367,137.519253
-353.204082,303.285714,136.528374
-353.204082,312.653061,135.427295
-353.204082,322.020408,134.397671
-353.204082,331.387755,133.515527
-353.204082,340.755102,132.797551
-353.204082,350.122449,132.232440
-353.204082,359.489796,131.798049
-353.204082,368.857143,131.469808
-353.204082,378.224490,131.224528
-353.204082,387.591837,131.041942
-353.204082,396.959184,130.905154
-353.204082,406.326531,130.800571
-353.204082,415.693878,130.717594
-353.204082,425.061224,130.648202
-353.204082,434.428571,130.586513
-353.204082,443.795918,130.528360
-353.204082,453.163265,130.470922
-353.204082,462.530612,130.412402
-353.204082,471.897959,130.351763
-353.204082,481.265306,130.288525
-353.204082,490.632653,130.222593
-353.204082,500.000000,130.154136
-341.408163,41.000000,121.384316
-341.408163,50.367347,121.547509
-341.408163,59.734694,121.757424
-341.408163,69.102041,122.019785
-341.408163,78.469388,122.341117
-341.408163,87.836735,122.728360
-341.408163,97.204082,123.181685
-341.408163,106.571429,123.664291
-341.408163,115.938776,124.013588
-341.408163,125.306122,123.698017
-341.408163,134.673469,121.168633
-341.408163,144.040816,115.667376
-341.408163,153.408163,118.516824
-341.408163,162.775510,127.455889
-341.408163,172.142857,132.402564
-341.408163,181.510204,125.438471
-341.408163,190.877551,114.209135
-341.408163,200.244898,108.550385
-341.408163,209.612245,109.617559
-341.408163,218.979592,117.474070
-341.408163,228.346939,124.470965
-341.408163,237.714286,129.625053
-341.408163,247.081633,134.336855
-341.408163,256.448980,138.975112
-341.408163,265.816327,142.938881
-341.408163,275.183673,144.858991
-341.408163,284.551020,144.205411
-341.408163,293.918367,142.043383
-341.408163,303.285714,139.579582
-341.408163,312.653061,137.390896
-341.408163,322.020408,135.629756
-341.408163,331.387755,134.278288
-341.408163,340.755102,133.268823
-341.408163,350.122449,132.528780
-341.408163,359.489796,131.994464
-341.408163,368.857143,131.613673
-341.408163,378.224490,131.344901
-341.408163,387.591837,131.155757
-341.408163,396.959184,131.021417
-341.408163,406.326531,130.923231
-341.408163,415.693878,130.847515
-341.408163,425.061224,130.784499
-341.408163,434.428571,130.727429
-341.408163,443.795918,130.671825
-341.408163,453.163265,130.614878
-341.408163,462.530612,130.554990
-341.408163,471.897959,130.491410
-341.408163,481.265306,130.423971
-341.408163,490.632653,130.352893
-341.408163,500.000000,130.278633
-329.612245,41.000000,121.039568
-329.612245,50.367347,121.221026
-329.612245,59.734694,121.464221
-329.612245,69.102041,121.776227
-329.612245,78.469388,122.165413
-329.612245,87.836735,122.648183
-329.612245,97.204082,123.259444
-329.612245,106.571429,124.038583
-329.612245,115.938776,124.904082
-329.612245,125.306122,125.246680
-329.612245,134.673469,122.252477
-329.612245,144.040816,96.891844
-329.612245,153.408163,137.198786
-329.612245,162.775510,158.834363
-329.612245,172.142857,160.012162
-329.612245,181.510204,172.075781
-329.612245,190.877551,137.632623
-329.612245,200.244898,121.829404
-329.612245,209.612245,102.001545
-329.612245,218.979592,118.359014
-329.612245,228.346939,126.326573
-329.612245,237.714286,132.298895
-329.612245,247.081633,138.923068
-329.612245,256.448980,147.507819
-329.612245,265.816327,157.526719
-329.612245,275.183673,161.526393
-329.612245,284.551020,156.099953
-329.612245,293.918367,148.939196
-329.612245,303.285714,143.362077
-329.612245,312.653061,139.415327
-329.612245,322.020408,136.682495
-329.612245,331.387755,134.799552
-329.612245,340.755102,133.505810
-329.612245,350.122449,132.622327
-329.612245,359.489796,132.025411
-329.612245,368.857143,131.627729
-329.612245,378.224490,131.366515
-329.612245,387.591837,131.196359
-329.612245,396.959184,131.084578
-329.612245,406.326531,131.008029
-329.612245,415.693878,130.950719
-329.612245,425.061224,130.901953
-329.612245,434.428571,130.854870
-329.612245,443.795918,130.805320
-329.612245,453.163265,130.751030
-329.612245,462.530612,130.690993
-329.612245,471.897959,130.625041
-329.612245,481.265306,130.553546
-329.612245,490.632653,130.477200
-329.612245,500.000000,130.396872
-317.816327,41.000000,120.634658
-317.816327,50.367347,120.842173
-317.816327,59.734694,121.137048
-317.816327,69.102041,121.527752
-317.816327,78.469388,122.014441
-317.816327,87.836735,122.592489
-317.816327,97.204082,123.303657
-317.816327,106.571429,124.365830
-317.816327,115.938776,126.176894
-317.816327,125.306122,128.663701
-317.816327,134.673469,130.828200
-317.816327,144.040816,135.855127
-317.816327,153.408163,152.377494
-317.816327,162.775510,162.780066
-317.816327,172.142857,152.204193
-317.816327,181.510204,148.683156
-317.816327,190.877551,160.072690
-317.816327,200.244898,142.088601
-317.816327,209.612245,122.605144
-317.816327,218.979592,119.910985
-317.816327,228.346939,127.418069
-317.816327,237.714286,135.004507
-317.816327,247.081633,144.036669
-317.816327,256.448980,159.782401
-317.816327,265.816327,198.707075
-317.816327,275.183673,218.185986
-317.816327,284.551020,177.409485
-317.816327,293.918367,157.484129
-317.816327,303.285714,146.926756
-317.816327,312.653061,140.824617
-317.816327,322.020408,137.131426
-317.816327,331.387755,134.819412
-317.816327,340.755102,133.348322
-317.816327,350.122449,132.413635
-317.816327,359.489796,131.829605
-317.816327,368.857143,131.475252
-317.816327,378.224490,131.268494
-317.816327,387.591837,131.152818
-317.816327,396.959184,131.089601
-317.816327,406.326531,131.053092
-317.816327,415.693878,131.026761
-317.816327,425.061224,131.000534
-317.816327,434.428571,130.968696
-317.816327,443.795918,130.928381
-317.816327,453.163265,130.878531
-317.816327,462.530612,130.819206
-317.816327,471.897959,130.751148
-317.816327,481.265306,130.675492
-317.816327,490.632653,130.593571
-317.816327,500.000000,130.506778
-306.020408,41.000000,120.148859
-306.020408,50.367347,120.397034
-306.020408,59.734694,120.786302
-306.020408,69.102041,121.345697
-306.020408,78.469388,122.086898
-306.020408,87.836735,122.928966
-306.020408,97.204082,123.614924
-306.020408,106.571429,124.214216
-306.020408,115.938776,126.614324
-306.020408,125.306122,135.361617
-306.020408,134.673469,143.414734
-306.020408,144.040816,138.251442
-306.020408,153.408163,134.860632
-306.020408,162.775510,132.370754
-306.020408,172.142857,125.785745
-306.020408,181.510204,86.738261
-306.020408,190.877551,270.195260
-306.020408,200.244898,154.724081
-306.020408,209.612245,107.646661
-306.020408,218.979592,107.009643
-306.020408,228.346939,127.923922
-306.020408,237.714286,138.497929
-306.020408,247.081633,148.917276
-306.020408,256.448980,163.036863
-306.020408,265.816327,198.817936
-306.020408,275.183673,225.421892
-306.020408,284.551020,195.676899
-306.020408,293.918367,163.327199
-306.020408,303.285714,148.038588
-306.020408,312.653061,140.558773
-306.020408,322.020408,136.460563
-306.020408,331.387755,134.066588
-306.020408,340.755102,132.643418
-306.020408,350.122449,131.813867
-306.020408,359.489796,131.356553
-306.020408,368.857143,131.129778
-306.020408,378.224490,131.039181
-306.020408,387.591837,131.021903
-306.020408,396.959184,131.037300
-306.020408,406.326531,131.060498
-306.020408,415.693878,131.077455
-306.020408,425.061224,131.081152
-306.020408,434.428571,131.068814
-306.020408,443.795918,131.040056
-306.020408,453.163265,130.995781
-306.020408,462.530612,130.937568
-306.020408,471.897959,130.867345
-306.020408,481.265306,130.787201
-306.020408,490.632653,130.699248
-306.020408,500.000000,130.605515
-294.224490,41.000000,119.535927
-294.224490,50.367347,119.836023
-294.224490,59.734694,120.379713
-294.224490,69.102041,121.269701
-294.224490,78.469388,122.710868
-294.224490,87.836735,124.999215
-294.224490,97.204082,127.140648
-294.224490,106.571429,124.683218
-294.224490,115.938776,117.503132
-294.224490,125.306122,138.796664
-294.224490,134.673469,186.286552
-294.224490,144.040816,156.887748
-294.224490,153.408163,127.467725
-294.224490,162.775510,109.723326
-294.224490,172.142857,110.510020
-294.224490,181.510204,121.000211
-294.224490,190.877551,128.031768
-294.224490,200.244898,125.209116
-294.224490,209.612245,120.644385
-294.224490,218.979592,122.777330
-294.224490,228.346939,131.381526
-294.224490,237.714286,146.914991
-294.224490,247.081633,168.845538
-294.224490,256.448980,166.443306
-294.224490,265.816327,170.514061
-294.224490,275.183673,229.179309
-294.224490,284.551020,198.663306
-294.224490,293.918367,157.781154
-294.224490,303.285714,144.234310
-294.224490,312.653061,137.853994
-294.224490,322.020408,134.356633
-294.224490,331.387755,132.373331
-294.224490,340.755102,131.289794
-294.224490,350.122449,130.763506
-294.224490,359.489796,130.576276
-294.224490,368.857143,130.581339
-294.224490,378.224490,130.680386
-294.224490,387.591837,130.810580
-294.224490,396.959184,130.935177
-294.224490,406.326531,131.035728
-294.224490,415.693878,131.105415
-294.224490,425.061224,131.143817
-294.224490,434.428571,131.153358
-294.224490,443.795918,131.137356
-294.224490,453.163265,131.099221
-294.224490,462.530612,131.042266
-294.224490,471.897959,130.969721
-294.224490,481.265306,130.884731
-294.224490,490.632653,130.790299
-294.224490,500.000000,130.689199
-282.428571,41.000000,118.701319
-282.428571,50.367347,119.029549
-282.428571,59.734694,119.773805
-282.428571,69.102041,121.126776
-282.428571,78.469388,123.561358
-282.428571,87.836735,129.748668
-282.428571,97.204082,153.499792
-282.428571,106.571429,148.780969
-282.428571,115.938776,112.163105
-282.428571,125.306122,86.279867
-282.428571,134.673469,186.262701
-282.428571,144.040816,151.966085
-282.428571,153.408163,114.544324
-282.428571,162.775510,103.598803
-282.428571,172.142857,102.869832
-282.428571,181.510204,105.579200
-282.428571,190.877551,104.035172
-282.428571,200.244898,97.040699
-282.428571,209.612245,108.742130
-282.428571,218.979592,118.147082
-282.428571,228.346939,128.051064
-282.428571,237.714286,151.406311
-282.428571,247.081633,253.788888
-282.428571,256.448980,175.421747
-282.428571,265.816327,126.144543
-282.428571,275.183673,144.127945
-282.428571,284.551020,146.971439
-282.428571,293.918367,142.277140
-282.428571,303.285714,136.924823
-282.428571,312.653061,133.167896
-282.428571,322.020408,130.899468
-282.428571,331.387755,129.698214
-282.428571,340.755102,129.229659
-282.428571,350.122449,129.225545
-282.428571,359.489796,129.477920
-282.428571,368.857143,129.838208
-282.428571,378.224490,130.209516
-282.428571,387.591837,130.536638
-282.428571,396.959184,130.795807
-282.428571,406.326531,130.984111
-282.428571,415.693878,131.109508
-282.428571,425.061224,131.183121
-282.428571,434.428571,131.214927
-282.428571,443.795918,131.212492
-282.428571,453.163265,131.181471
-282.428571,462.530612,131.126543
-282.428571,471.897959,131.052065
-282.428571,481.265306,130.962275
-282.428571,490.632653,130.861221
-282.428571,500.000000,130.752592
-270.632653,41.000000,117.475624
-270.632653,50.367347,117.670618
-270.632653,59.734694,118.601795
-270.632653,69.102041,120.764691
-270.632653,78.469388,124.159972
-270.632653,87.836735,127.971927
-270.632653,97.204082,135.648711
-270.632653,106.571429,115.675824
-270.632653,115.938776,87.467292
-270.632653,125.306122,79.658930
-270.632653,134.673469,86.000176
-270.632653,144.040816,89.432095
-270.632653,153.408163,86.432226
-270.632653,162.775510,91.068018
-270.632653,172.142857,90.602363
-270.632653,181.510204,81.555895
-270.632653,190.877551,83.779189
-270.632653,200.244898,82.339684
-270.632653,209.612245,103.920788
-270.632653,218.979592,91.945888
-270.632653,228.346939,110.439408
-270.632653,237.714286,138.697786
-270.632653,247.081633,154.838072
-270.632653,256.448980,177.243553
-270.632653,265.816327,138.099349
-270.632653,275.183673,134.573383
-270.632653,284.551020,139.606454
-270.632653,293.918367,133.175748
-270.632653,303.285714,129.332506
-270.632653,312.653061,127.258703
-270.632653,322.020408,126.137541
-270.632653,331.387755,125.904062
-270.632653,340.755102,126.343544
-270.632653,350.122449,127.143803
-270.632653,359.489796,128.056926
-270.632653,368.857143,128.925293
-270.632653,378.224490,129.660125
-270.632653,387.591837,130.226429
-270.632653,396.959184,130.630013
-270.632653,406.326531,130.900516
-270.632653,415.693878,131.073638
-270.632653,425.061224,131.178550
-270.632653,434.428571,131.233605
-270.632653,443.795918,131.248557
-270.632653,453.163265,131.228956
-270.632653,462.530612,131.179462
-270.632653,471.897959,131.105191
-270.632653,481.265306,131.011720
-270.632653,490.632653,130.904587
-270.632653,500.000000,130.788799
-258.836735,41.000000,115.657925
-258.836735,50.367347,115.067322
-258.836735,59.734694,115.330544
-258.836735,69.102041,119.152349
-258.836735,78.469388,129.437321
-258.836735,87.836735,148.833380
-258.836735,97.204082,126.094057
-258.836735,106.571429,91.056901
-258.836735,115.938776,74.034777
-258.836735,125.306122,72.793939
-258.836735,134.673469,77.692676
-258.836735,144.040816,85.029230
-258.836735,153.408163,80.641035
-258.836735,162.775510,87.922351
-258.836735,172.142857,73.497511
-258.836735,181.510204,83.074959
-258.836735,190.877551,88.380043
-258.836735,200.244898,110.439088
-258.836735,209.612245,137.257008
-258.836735,218.979592,83.975104
-258.836735,228.346939,129.671741
-258.836735,237.714286,152.958263
-258.836735,247.081633,160.021846
-258.836735,256.448980,158.517537
-258.836735,265.816327,142.076101
-258.836735,275.183673,125.958432
-258.836735,284.551020,119.358140
-258.836735,293.918367,120.060959
-258.836735,303.285714,120.511150
-258.836735,312.653061,119.567529
-258.836735,322.020408,119.114422
-258.836735,331.387755,120.257064
-258.836735,340.755102,122.277714
-258.836735,350.122449,124.391341
-258.836735,359.489796,126.300420
-258.836735,368.857143,127.884148
-258.836735,378.224490,129.083226
-258.836735,387.591837,129.907161
-258.836735,396.959184,130.427078
-258.836735,406.326531,130.742004
-258.836735,415.693878,130.939930
-258.836735,425.061224,131.074321
-258.836735,434.428571,131.164993
-258.836735,443.795918,131.213883
-258.836735,453.163265,131.219844
-258.836735,462.530612,131.185333
-258.836735,471.897959,131.116754
-258.836735,481.265306,131.022453
-258.836735,490.632653,130.910787
-258.836735,500.000000,130.788982
-247.040816,41.000000,113.418253
-247.040816,50.367347,110.827827
-247.040816,59.734694,104.859940
-247.040816,69.102041,101.632616
-247.040816,78.469388,136.343218
-247.040816,87.836735,146.766100
-247.040816,97.204082,139.708412
-247.040816,106.571429,74.189572
-247.040816,115.938776,82.239040
-247.040816,125.306122,93.643016
-247.040816,134.673469,96.778556
-247.040816,144.040816,100.279926
-247.040816,153.408163,104.955065
-247.040816,162.775510,111.426623
-247.040816,172.142857,113.184319
-247.040816,181.510204,109.218166
-247.040816,190.877551,110.561915
-247.040816,200.244898,115.295663
-247.040816,209.612245,120.304526
-247.040816,218.979592,126.163433
-247.040816,228.346939,148.566217
-247.040816,237.714286,195.236688
-247.040816,247.081633,204.427144
-247.040816,256.448980,236.229896
-247.040816,265.816327,132.683733
-247.040816,275.183673,90.840404
-247.040816,284.551020,87.794709
-247.040816,293.918367,108.032726
-247.040816,303.285714,111.663015
-247.040816,312.653061,106.336949
-247.040816,322.020408,104.186020
-247.040816,331.387755,110.536648
-247.040816,340.755102,116.414634
-247.040816,350.122449,120.725731
-247.040816,359.489796,124.151805
-247.040816,368.857143,126.778090
-247.040816,378.224490,128.555481
-247.040816,387.591837,129.585173
-247.040816,396.959184,130.096347
-247.040816,406.326531,130.350947
-247.040816,415.693878,130.541355
-247.040816,425.061224,130.737696
-247.040816,434.428571,130.922335
-247.040816,443.795918,131.057857
-247.040816,453.163265,131.124904
-247.040816,462.530612,131.125244
-247.040816,471.897959,131.072093
-247.040816,481.265306,130.981491
-247.040816,490.632653,130.867767
-247.040816,500.000000,130.742000
-235.244898,41.000000,111.662868
-235.244898,50.367347,108.135897
-235.244898,59.734694,100.260589
-235.244898,69.102041,90.582748
-235.244898,78.469388,95.422239
-235.244898,87.836735,110.601861
-235.244898,97.204082,82.447106
-235.244898,106.571429,85.408753
-235.244898,115.938776,100.474434
-235.244898,125.306122,105.653901
-235.244898,134.673469,108.995606
-235.244898,144.040816,112.704846
-235.244898,153.408163,120.499865
-235.244898,162.775510,134.508317
-235.244898,172.142857,126.834943
-235.244898,181.510204,123.633087
-235.244898,190.877551,122.234288
-235.244898,200.244898,123.008683
-235.244898,209.612245,125.795410
-235.244898,218.979592,131.807847
-235.244898,228.346939,144.598149
-235.244898,237.714286,161.082522
-235.244898,247.081633,169.349079
-235.244898,256.448980,164.634332
-235.244898,265.816327,136.360126
-235.244898,275.183673,114.253426
-235.244898,284.551020,107.676289
-235.244898,293.918367,117.161527
-235.244898,303.285714,104.731063
-235.244898,312.653061,67.490472
-235.244898,322.020408,49.252585
-235.244898,331.387755,96.470636
-235.244898,340.755102,108.201817
-235.244898,350.122449,115.155891
-235.244898,359.489796,121.298107
-235.244898,368.857143,125.750419
-235.244898,378.224490,128.224886
-235.244898,387.591837,129.179408
-235.244898,396.959184,129.272981
-235.244898,406.326531,129.207083
-235.244898,415.693878,129.415692
-235.244898,425.061224,129.876295
-235.244898,434.428571,130.361308
-235.244898,443.795918,130.719087
-235.244898,453.163265,130.916993
-235.244898,462.530612,130.982316
-235.244898,471.897959,130.955969
-235.244898,481.265306,130.873429
-235.244898,490.632653,130.760393
-235.244898,500.000000,130.633778
-223.448980,41.000000,110.606021
-223.448980,50.367347,107.694598
-223.448980,59.734694,103.303064
-223.448980,69.102041,94.576909
-223.448980,78.469388,89.257903
-223.448980,87.836735,97.823807
-223.448980,97.204082,92.577747
-223.448980,106.571429,98.233420
-223.448980,115.938776,109.947856
-223.448980,125.306122,115.320698
-223.448980,134.673469,118.235992
-223.448980,144.040816,120.572308
-223.448980,153.408163,122.950583
-223.448980,162.775510,125.070406
-223.448980,172.142857,135.734346
-223.448980,181.510204,144.802782
-223.448980,190.877551,131.137333
-223.448980,200.244898,128.511050
-223.448980,209.612245,127.636608
-223.448980,218.979592,128.583275
-223.448980,228.346939,131.433015
-223.448980,237.714286,134.790671
-223.448980,247.081633,135.989263
-223.448980,256.448980,132.899108
-223.448980,265.816327,125.895475
-223.448980,275.183673,118.581929
-223.448980,284.551020,113.499005
-223.448980,293.918367,107.265528
-223.448980,303.285714,87.724222
-223.448980,312.653061,84.718819
-223.448980,322.020408,79.284547
-223.448980,331.387755,79.543353
-223.448980,340.755102,89.476199
-223.448980,350.122449,100.017352
-223.448980,359.489796,117.249085
-223.448980,368.857143,125.541236
-223.448980,378.224490,128.461851
-223.448980,387.591837,128.301907
-223.448980,396.959184,126.551173
-223.448980,406.326531,125.425120
-223.448980,415.693878,126.230997
-223.448980,425.061224,127.921092
-223.448980,434.428571,129.324284
-223.448980,443.795918,130.174382
-223.448980,453.163265,130.595255
-223.448980,462.530612,130.749037
-223.448980,471.897959,130.752661
-223.448980,481.265306,130.678546
-223.448980,490.632653,130.568649
-223.448980,500.000000,130.446155
-211.653061,41.000000,109.317104
-211.653061,50.367347,106.216247
-211.653061,59.734694,103.026634
-211.653061,69.102041,100.359106
-211.653061,78.469388,97.188836
-211.653061,87.836735,84.453800
-211.653061,97.204082,59.058869
-211.653061,106.571429,109.959297
-211.653061,115.938776,123.589014
-211.653061,125.306122,126.977399
-211.653061,134.673469,128.057798
-211.653061,144.040816,127.861240
-211.653061,153.408163,126.393834
-211.653061,162.775510,101.299680
-211.653061,172.142857,130.127140
-211.653061,181.510204,142.851630
-211.653061,190.877551,140.360397
-211.653061,200.244898,132.989968
-211.653061,209.612245,126.525737
-211.653061,218.979592,122.486549
-211.653061,228.346939,120.258717
-211.653061,237.714286,118.756488
-211.653061,247.081633,116.596538
-211.653061,256.448980,114.134310
-211.653061,265.816327,111.471907
-211.653061,275.183673,108.581776
-211.653061,284.551020,107.359264
-211.653061,293.918367,106.722049
-211.653061,303.285714,97.638400
-211.653061,312.653061,83.318920
-211.653061,322.020408,89.383051
-211.653061,331.387755,78.682724
-211.653061,340.755102,38.361480
-211.653061,350.122449,73.182798
-211.653061,359.489796,119.814386
-211.653061,368.857143,128.409495
-211.653061,378.224490,129.968867
-211.653061,387.591837,125.884714
-211.653061,396.959184,115.759121
-211.653061,406.326531,109.901251
-211.653061,415.693878,117.127674
-211.653061,425.061224,124.304926
-211.653061,434.428571,127.942815
-211.653061,443.795918,129.553587
-211.653061,453.163265,130.208863
-211.653061,462.530612,130.423245
-211.653061,471.897959,130.437675
-211.653061,481.265306,130.366542
-211.653061,490.632653,130.264106
-211.653061,500.000000,130.155378
-199.857143,41.000000,107.266107
-199.857143,50.367347,101.021659
-199.857143,59.734694,92.262405
-199.857143,69.102041,91.704520
-199.857143,78.469388,88.907974
-199.857143,87.836735,67.793540
-199.857143,97.204082,103.227618
-199.857143,106.571429,142.916809
-199.857143,115.938776,164.828771
-199.857143,125.306122,145.078948
-199.857143,134.673469,150.024580
-199.857143,144.040816,136.274152
-199.857143,153.408163,133.934852
-199.857143,162.775510,140.141303
-199.857143,172.142857,160.544352
-199.857143,181.510204,181.191982
-199.857143,190.877551,164.387872
-199.857143,200.244898,134.715609
-199.857143,209.612245,119.580114
-199.857143,218.979592,111.888635
-199.857143,228.346939,106.872252
-199.857143,237.714286,106.830022
-199.857143,247.081633,96.099249
-199.857143,256.448980,92.431987
-199.857143,265.816327,94.129200
-199.857143,275.183673,83.256219
-199.857143,284.551020,86.881255
-199.857143,293.918367,96.307384
-199.857143,303.285714,109.280165
-199.857143,312.653061,116.968160
-199.857143,322.020408,120.493202
-199.857143,331.387755,120.440615
-199.857143,340.755102,117.770564
-199.857143,350.122449,123.154967
-199.857143,359.489796,129.882115
-199.857143,368.857143,133.236454
-199.857143,378.224490,133.892390
-199.857143,387.591837,123.694352
-199.857143,396.959184,79.373056
-199.857143,406.326531,32.665961
-199.857143,415.693878,100.846119
-199.857143,425.061224,121.383407
-199.857143,434.428571,127.227598
-199.857143,443.795918,129.162396
-199.857143,453.163265,129.802733
-199.857143,462.530612,129.966544
-199.857143,471.897959,129.954676
-199.857143,481.265306,129.885714
-199.857143,490.632653,129.805879
-199.857143,500.000000,129.731421
-188.061224,41.000000,106.200541
-188.061224,50.367347,95.882402
-188.061224,59.734694,64.871869
-188.061224,69.102041,69.998460
-188.061224,78.469388,87.925093
-188.061224,87.836735,94.074898
-188.061224,97.204082,110.003086
-188.061224,106.571429,115.920391
-188.061224,115.938776,146.570347
-188.061224,125.306122,147.847002
-188.061224,134.673469,152.584428
-188.061224,144.040816,135.849410
-188.061224,153.408163,125.287845
-188.061224,162.775510,136.399957
-188.061224,172.142857,170.759989
-188.061224,181.510204,211.777307
-188.061224,190.877551,177.930115
-188.061224,200.244898,130.511973
-188.061224,209.612245,113.631105
-188.061224,218.979592,106.399071
-188.061224,228.346939,100.662135
-188.061224,237.714286,105.406239
-188.061224,247.081633,96.083671
-188.061224,256.448980,92.688664
-188.061224,265.816327,94.746647
-188.061224,275.183673,84.612617
-188.061224,284.551020,88.988078
-188.061224,293.918367,100.104424
-188.061224,303.285714,119.090798
-188.061224,312.653061,134.807683
-188.061224,322.020408,142.701532
-188.061224,331.387755,145.595408
-188.061224,340.755102,145.843552
-188.061224,350.122449,145.445957
-188.061224,359.489796,144.858555
-188.061224,368.857143,144.493207
-188.061224,378.224490,142.182551
-188.061224,387.591837,133.712777
-188.061224,396.959184,111.454242
-188.061224,406.326531,94.848812
-188.061224,415.693878,114.531419
-188.061224,425.061224,124.758910
-188.061224,434.428571,128.011326
-188.061224,443.795918,128.986275
-188.061224,453.163265,129.220401
-188.061224,462.530612,129.227938
-188.061224,471.897959,129.187518
-188.061224,481.265306,129.154939
-188.061224,490.632653,129.140628
-188.061224,500.000000,129.140733
-176.265306,41.000000,108.350360
-176.265306,50.367347,102.214957
-176.265306,59.734694,93.364778
-176.265306,69.102041,81.384163
-176.265306,78.469388,53.741025
-176.265306,87.836735,95.214065
-176.265306,97.204082,83.293045
-176.265306,106.571429,120.753086
-176.265306,115.938776,143.305465
-176.265306,125.306122,170.020394
-176.265306,134.673469,156.300122
-176.265306,144.040816,169.092648
-176.265306,153.408163,131.694480
-176.265306,162.775510,129.840736
-176.265306,172.142857,143.579462
-176.265306,181.510204,152.446115
-176.265306,190.877551,147.319358
-176.265306,200.244898,135.113975
-176.265306,209.612245,125.506607
-176.265306,218.979592,119.718741
-176.265306,228.346939,116.748674
-176.265306,237.714286,115.745013
-176.265306,247.081633,114.787696
-176.265306,256.448980,114.477599
-176.265306,265.816327,115.293985
-176.265306,275.183673,117.181967
-176.265306,284.551020,122.660106
-176.265306,293.918367,133.348690
-176.265306,303.285714,148.245714
-176.265306,312.653061,162.203475
-176.265306,322.020408,169.756235
-176.265306,331.387755,169.966103
-176.265306,340.755102,165.985024
-176.265306,350.122449,161.394866
-176.265306,359.489796,158.065239
-176.265306,368.857143,155.794824
-176.265306,378.224490,152.794136
-176.265306,387.591837,147.256342
-176.265306,396.959184,139.232141
-176.265306,406.326531,132.294942
-176.265306,415.693878,129.422807
-176.265306,425.061224,128.714688
-176.265306,434.428571,128.410349
-176.265306,443.795918,128.150464
-176.265306,453.163265,127.970834
-176.265306,462.530612,127.911528
-176.265306,471.897959,127.958882
-176.265306,481.265306,128.072377
-176.265306,490.632653,128.213119
-176.265306,500.000000,128.355311
-164.469388,41.000000,111.739107
-164.469388,50.367347,108.932123
-164.469388,59.734694,105.400220
-164.469388,69.102041,101.054788
-164.469388,78.469388,100.241613
-164.469388,87.836735,107.064373
-164.469388,97.204082,113.660704
-164.469388,106.571429,126.673960
-164.469388,115.938776,138.361229
-164.469388,125.306122,184.190356
-164.469388,134.673469,176.909746
-164.469388,144.040816,163.417602
-164.469388,153.408163,129.320164
-164.469388,162.775510,91.179804
-164.469388,172.142857,127.169835
-164.469388,181.510204,135.049687
-164.469388,190.877551,134.798122
-164.469388,200.244898,131.619341
-164.469388,209.612245,128.308865
-164.469388,218.979592,126.240055
-164.469388,228.346939,125.684397
-164.469388,237.714286,126.388036
-164.469388,247.081633,127.938434
-164.469388,256.448980,130.217504
-164.469388,265.816327,133.543112
-164.469388,275.183673,138.842693
-164.469388,284.551020,147.950891
-164.469388,293.918367,163.165480
-164.469388,303.285714,185.078479
-164.469388,312.653061,207.566467
-164.469388,322.020408,214.701112
-164.469388,331.387755,202.052210
-164.469388,340.755102,184.608558
-164.469388,350.122449,171.316061
-164.469388,359.489796,165.290167
-164.469388,368.857143,165.145463
-164.469388,378.224490,164.278421
-164.469388,387.591837,158.519569
-164.469388,396.959184,147.204139
-164.469388,406.326531,135.462212
-164.469388,415.693878,128.982544
-164.469388,425.061224,126.818625
-164.469388,434.428571,125.918322
-164.469388,443.795918,125.455514
-164.469388,453.163265,125.386057
-164.469388,462.530612,125.641428
-164.469388,471.897959,126.074266
-164.469388,481.265306,126.550178
-164.469388,490.632653,126.991461
-164.469388,500.000000,127.369127
-152.673469,41.000000,114.680532
-152.673469,50.367347,113.523050
-152.673469,59.734694,112.462491
-152.673469,69.102041,111.997697
-152.673469,78.469388,113.028907
-152.673469,87.836735,115.950410
-152.673469,97.204082,120.469901
-152.673469,106.571429,126.615329
-152.673469,115.938776,133.112745
-152.673469,125.306122,139.655258
-152.673469,134.673469,144.149008
-152.673469,144.040816,139.905117
-152.673469,153.408163,130.636825
-152.673469,162.775510,125.597712
-152.673469,172.142857,126.835477
-152.673469,181.510204,128.660102
-152.673469,190.877551,129.060636
-152.673469,200.244898,128.784737
-152.673469,209.612245,128.746609
-152.673469,218.979592,129.661144
-152.673469,228.346939,131.881493
-152.673469,237.714286,135.323659
-152.673469,247.081633,139.487507
-152.673469,256.448980,143.799578
-152.673469,265.816327,148.359397
-152.673469,275.183673,154.448855
-152.673469,284.551020,164.774888
-152.673469,293.918367,183.617977
-152.673469,303.285714,213.255237
-152.673469,312.653061,295.261496
-152.673469,322.020408,327.267152
-152.673469,331.387755,247.020706
-152.673469,340.755102,193.765225
-152.673469,350.122449,162.795805
-152.673469,359.489796,152.368605
-152.673469,368.857143,175.118417
-152.673469,378.224490,182.352190
-152.673469,387.591837,178.471266
-152.673469,396.959184,146.098994
-152.673469,406.326531,109.228722
-152.673469,415.693878,110.561377
-152.673469,425.061224,118.162733
-152.673469,434.428571,119.507395
-152.673469,443.795918,119.867793
-152.673469,453.163265,120.721428
-152.673469,462.530612,122.033877
-152.673469,471.897959,123.401702
-152.673469,481.265306,124.578064
-152.673469,490.632653,125.506545
-152.673469,500.000000,126.218685
-140.877551,41.000000,116.878647
-140.877551,50.367347,116.474013
-140.877551,59.734694,116.276202
-140.877551,69.102041,116.494001
-140.877551,78.469388,117.343630
-140.877551,87.836735,118.916062
-140.877551,97.204082,121.144817
-140.877551,106.571429,123.833026
-140.877551,115.938776,126.531389
-140.877551,125.306122,128.524935
-140.877551,134.673469,129.069952
-140.877551,144.040816,127.845461
-140.877551,153.408163,125.807745
-140.877551,162.775510,124.428699
-140.877551,172.142857,124.145678
-140.877551,181.510204,124.478884
-140.877551,190.877551,125.065997
-140.877551,200.244898,126.058499
-140.877551,209.612245,127.912206
-140.877551,218.979592,131.185424
-140.877551,228.346939,136.229218
-140.877551,237.714286,143.334879
-140.877551,247.081633,152.042040
-140.877551,256.448980,158.957783
-140.877551,265.816327,162.473063
-140.877551,275.183673,166.630129
-140.877551,284.551020,172.884505
-140.877551,293.918367,187.438178
-140.877551,303.285714,214.994829
-140.877551,312.653061,290.493483
-140.877551,322.020408,318.834466
-140.877551,331.387755,244.930976
-140.877551,340.755102,194.808625
-140.877551,350.122449,166.277597
-140.877551,359.489796,162.674769
-140.877551,368.857143,197.705180
-140.877551,378.224490,207.519716
-140.877551,387.591837,239.035599
-140.877551,396.959184,131.716818
-140.877551,406.326531,80.473860
-140.877551,415.693878,94.886691
-140.877551,425.061224,106.541989
-140.877551,434.428571,107.967001
-140.877551,443.795918,109.200335
-140.877551,453.163265,112.680555
-140.877551,462.530612,116.770851
-140.877551,471.897959,120.039433
-140.877551,481.265306,122.328511
-140.877551,490.632653,123.896736
-140.877551,500.000000,124.996167
-129.081633,41.000000,118.478367
-129.081633,50.367347,118.374844
-129.081633,59.734694,118.401927
-129.081633,69.102041,118.618564
-129.081633,78.469388,119.057848
-129.081633,87.836735,119.698257
-129.081633,97.204082,120.456159
-129.081633,106.571429,121.192941
-129.081633,115.938776,121.719130
-129.081633,125.306122,121.830630
-129.081633,134.673469,121.426209
-129.081633,144.040816,120.656782
-129.081633,153.408163,119.929116
-129.081633,162.775510,119.603087
-129.081633,172.142857,119.697056
-129.081633,181.510204,120.048308
-129.081633,190.877551,120.743324
-129.081633,200.244898,122.238384
-129.081633,209.612245,125.136468
-129.081633,218.979592,130.120024
-129.081633,228.346939,136.721761
-129.081633,237.714286,127.823994
-129.081633,247.081633,166.008582
-129.081633,256.448980,189.312480
-129.081633,265.816327,164.535015
-129.081633,275.183673,209.240562
-129.081633,284.551020,165.186730
-129.081633,293.918367,191.344689
-129.081633,303.285714,195.921927
-129.081633,312.653061,212.250988
-129.081633,322.020408,217.149152
-129.081633,331.387755,205.713286
-129.081633,340.755102,190.826487
-129.081633,350.122449,181.265373
-129.081633,359.489796,183.311908
-129.081633,368.857143,194.875108
-129.081633,378.224490,220.597958
-129.081633,387.591837,226.547582
-129.081633,396.959184,123.029336
-129.081633,406.326531,48.291150
-129.081633,415.693878,71.598722
-129.081633,425.061224,85.842833
-129.081633,434.428571,81.570988
-129.081633,443.795918,83.424070
-129.081633,453.163265,98.824716
-129.081633,462.530612,110.449455
-129.081633,471.897959,116.759174
-129.081633,481.265306,120.277064
-129.081633,490.632653,122.411766
-129.081633,500.000000,123.828315
-117.285714,41.000000,119.729284
-117.285714,50.367347,119.757377
-117.285714,59.734694,119.837381
-117.285714,69.102041,119.959009
-117.285714,78.469388,120.075937
-117.285714,87.836735,120.094841
-117.285714,97.204082,119.887650
-117.285714,106.571429,119.334476
-117.285714,115.938776,118.375909
-117.285714,125.306122,117.038650
-117.285714,134.673469,115.457301
-117.285714,144.040816,114.009930
-117.285714,153.408163,113.435813
-117.285714,162.775510,114.144174
-117.285714,172.142857,115.357760
-117.285714,181.510204,115.769788
-117.285714,190.877551,115.514441
-117.285714,200.244898,116.371727
-117.285714,209.612245,119.329766
-117.285714,218.979592,124.604894
-117.285714,228.346939,132.285268
-117.285714,237.714286,141.941071
-117.285714,247.081633,153.291804
-117.285714,256.448980,161.815930
-117.285714,265.816327,164.760706
-117.285714,275.183673,168.823765
-117.285714,284.551020,174.949700
-117.285714,293.918367,178.135838
-117.285714,303.285714,179.005755
-117.285714,312.653061,183.813304
-117.285714,322.020408,187.699971
-117.285714,331.387755,188.483220
-117.285714,340.755102,186.773323
-117.285714,350.122449,184.381665
-117.285714,359.489796,183.717432
-117.285714,368.857143,185.847232
-117.285714,378.224490,183.056553
-117.285714,387.591837,168.180458
-117.285714,396.959184,138.773343
-117.285714,406.326531,96.469325
-117.285714,415.693878,21.438805
-117.285714,425.061224,32.807154
-117.285714,434.428571,29.598321
-117.285714,443.795918,21.708383
-117.285714,453.163265,87.835737
-117.285714,462.530612,107.700548
-117.285714,471.897959,115.309305
-117.285714,481.265306,119.038457
-117.285714,490.632653,121.264333
-117.285714,500.000000,122.791867
-105.489796,41.000000,120.855155
-105.489796,50.367347,121.000940
-105.489796,59.734694,121.170418
-105.489796,69.102041,121.332036
-105.489796,78.469388,121.399827
-105.489796,87.836735,121.193041
-105.489796,97.204082,120.427139
-105.489796,106.571429,118.818299
-105.489796,115.938776,116.297901
-105.489796,125.306122,113.077297
-105.489796,134.673469,109.277131
-105.489796,144.040816,104.867545
-105.489796,153.408163,102.842609
-105.489796,162.775510,107.728957
-105.489796,172.142857,115.256046
-105.489796,181.510204,116.618032
-105.489796,190.877551,109.270290
-105.489796,200.244898,107.534958
-105.489796,209.612245,110.714673
-105.489796,218.979592,114.911248
-105.489796,228.346939,121.051231
-105.489796,237.714286,129.155076
-105.489796,247.081633,137.535521
-105.489796,256.448980,144.721999
-105.489796,265.816327,150.766905
-105.489796,275.183673,157.030429
-105.489796,284.551020,165.508358
-105.489796,293.918367,174.048349
-105.489796,303.285714,172.351242
-105.489796,312.653061,172.435748
-105.489796,322.020408,179.192153
-105.489796,331.387755,189.004916
-105.489796,340.755102,195.896988
-105.489796,350.122449,196.277815
-105.489796,359.489796,191.391687
-105.489796,368.857143,183.201052
-105.489796,378.224490,172.513728
-105.489796,387.591837,158.912010
-105.489796,396.959184,141.694936
-105.489796,406.326531,120.853670
-105.489796,415.693878,101.874988
-105.489796,425.061224,92.190526
-105.489796,434.428571,80.301699
-105.489796,443.795918,90.950050
-105.489796,453.163265,106.848689
-105.489796,462.530612,113.195435
-105.489796,471.897959,116.291425
-105.489796,481.265306,118.522754
-105.489796,490.632653,120.322245
-105.489796,500.000000,121.806222
-93.693878,41.000000,122.010750
-93.693878,50.367347,122.336995
-93.693878,59.734694,122.731926
-93.693878,69.102041,123.212143
-93.693878,78.469388,123.752203
-93.693878,87.836735,124.131989
-93.693878,97.204082,123.666243
-93.693878,106.571429,121.257598
-93.693878,115.938776,116.278032
-93.693878,125.306122,109.875859
-93.693878,134.673469,102.945928
-93.693878,144.040816,89.355865
-93.693878,153.408163,51.996270
-93.693878,162.775510,94.801552
-93.693878,172.142857,116.804401
-93.693878,181.510204,130.239230
-93.693878,190.877551,102.864186
-93.693878,200.244898,98.627028
-93.693878,209.612245,101.688712
-93.693878,218.979592,102.705138
-93.693878,228.346939,106.335292
-93.693878,237.714286,115.832926
-93.693878,247.081633,125.226205
-93.693878,256.448980,132.593490
-93.693878,265.816327,139.796494
-93.693878,275.183673,148.644258
-93.693878,284.551020,163.951526
-93.693878,293.918367,185.210673
-93.693878,303.285714,168.851552
-93.693878,312.653061,157.899552
-93.693878,322.020408,172.802258
-93.693878,331.387755,210.275015
-93.693878,340.755102,237.865454
-93.693878,350.122449,236.295195
-93.693878,359.489796,224.722578
-93.693878,368.857143,203.249384
-93.693878,378.224490,178.569153
-93.693878,387.591837,159.888161
-93.693878,396.959184,144.456517
-93.693878,406.326531,127.925174
-93.693878,415.693878,86.749483
-93.693878,425.061224,111.645500
-93.693878,434.428571,120.242044
-93.693878,443.795918,170.532610
-93.693878,453.163265,140.880232
-93.693878,462.530612,118.833293
-93.693878,471.897959,116.293215
-93.693878,481.265306,117.376445
-93.693878,490.632653,119.045541
-93.693878,500.000000,120.656329
-81.897959,41.000000,123.275799
-81.897959,50.367347,123.863426
-81.897959,59.734694,124.623241
-81.897959,69.102041,125.721664
-81.897959,78.469388,127.504877
-81.897959,87.836735,130.402462
-81.897959,97.204082,133.347744
-81.897959,106.571429,132.123647
-81.897959,115.938776,120.961780
-81.897959,125.306122,103.661717
-81.897959,134.673469,96.740476
-81.897959,144.040816,88.838186
-81.897959,153.408163,76.794609
-81.897959,162.775510,65.535183
-81.897959,172.142857,86.252613
-81.897959,181.510204,102.638760
-81.897959,190.877551,103.241797
-81.897959,200.244898,100.927503
-81.897959,209.612245,96.012197
-81.897959,218.979592,99.351912
-81.897959,228.346939,101.589542
-81.897959,237.714286,108.606829
-81.897959,247.081633,115.087906
-81.897959,256.448980,120.710472
-81.897959,265.816327,127.864480
-81.897959,275.183673,137.907859
-81.897959,284.551020,151.059230
-81.897959,293.918367,164.424510
-81.897959,303.285714,223.500031
-81.897959,312.653061,95.610949
-81.897959,322.020408,100.624185
-81.897959,331.387755,322.735090
-81.897959,340.755102,409.656160
-81.897959,350.122449,312.189743
-81.897959,359.489796,323.684305
-81.897959,368.857143,248.231657
-81.897959,378.224490,184.259388
-81.897959,387.591837,159.734962
-81.897959,396.959184,144.665540
-81.897959,406.326531,133.151313
-81.897959,415.693878,124.847882
-81.897959,425.061224,122.753202
-81.897959,434.428571,120.617566
-81.897959,443.795918,127.733193
-81.897959,453.163265,108.071040
-81.897959,462.530612,106.208814
-81.897959,471.897959,110.982226
-81.897959,481.265306,114.383429
-81.897959,490.632653,117.041489
-81.897959,500.000000,119.216216
-70.102041,41.000000,124.671529
-70.102041,50.367347,125.590179
-70.102041,59.734694,126.763733
-70.102041,69.102041,128.492727
-70.102041,78.469388,131.697009
-70.102041,87.836735,139.554565
-70.102041,97.204082,162.815308
-70.102041,106.571429,157.848063
-70.102041,115.938776,128.791018
-70.102041,125.306122,88.263297
-70.102041,134.673469,87.664932
-70.102041,144.040816,73.071833
-70.102041,153.408163,79.842792
-70.102041,162.775510,76.432440
-70.102041,172.142857,87.061661
-70.102041,181.510204,94.053997
-70.102041,190.877551,97.006467
-70.102041,200.244898,97.738985
-70.102041,209.612245,97.947553
-70.102041,218.979592,98.953034
-70.102041,228.346939,100.776230
-70.102041,237.714286,102.314931
-70.102041,247.081633,100.571739
-70.102041,256.448980,101.457450
-70.102041,265.816327,108.262425
-70.102041,275.183673,117.787279
-70.102041,284.551020,147.866100
-70.102041,293.918367,189.232916
-70.102041,303.285714,175.980913
-70.102041,312.653061,147.953737
-70.102041,322.020408,160.795417
-70.102041,331.387755,205.716127
-70.102041,340.755102,239.128797
-70.102041,350.122449,236.120361
-70.102041,359.489796,230.193242
-70.102041,368.857143,229.112730
-70.102041,378.224490,163.987609
-70.102041,387.591837,156.022230
-70.102041,396.959184,139.945154
-70.102041,406.326531,127.304331
-70.102041,415.693878,125.533480
-70.102041,425.061224,110.364831
-70.102041,434.428571,108.233489
-70.102041,443.795918,88.896822
-70.102041,453.163265,17.236977
-70.102041,462.530612,87.627651
-70.102041,471.897959,103.706938
-70.102041,481.265306,110.389904
-70.102041,490.632653,114.610069
-70.102041,500.000000,117.637066
-58.306122,41.000000,126.169945
-58.306122,50.367347,127.519325
-58.306122,59.734694,129.153091
-58.306122,69.102041,131.279643
-58.306122,78.469388,134.426701
-58.306122,87.836735,140.514147
-58.306122,97.204082,152.986526
-58.306122,106.571429,157.782350
-58.306122,115.938776,140.415354
-58.306122,125.306122,114.948475
-58.306122,134.673469,92.171296
-58.306122,144.040816,76.527536
-58.306122,153.408163,64.489708
-58.306122,162.775510,59.617243
-58.306122,172.142857,76.888607
-58.306122,181.510204,86.164127
-58.306122,190.877551,88.974330
-58.306122,200.244898,89.039329
-58.306122,209.612245,87.443742
-58.306122,218.979592,86.374757
-58.306122,228.346939,88.588338
-58.306122,237.714286,92.052351
-58.306122,247.081633,79.717624
-58.306122,256.448980,71.028245
-58.306122,265.816327,77.985744
-58.306122,275.183673,100.838803
-58.306122,284.551020,140.698745
-58.306122,293.918367,235.399867
-58.306122,303.285714,142.711014
-58.306122,312.653061,128.959395
-58.306122,322.020408,142.705348
-58.306122,331.387755,154.991638
-58.306122,340.755102,164.775195
-58.306122,350.122449,170.870708
-58.306122,359.489796,180.658200
-58.306122,368.857143,189.308413
-58.306122,378.224490,163.107271
-58.306122,387.591837,151.283232
-58.306122,396.959184,139.133492
-58.306122,406.326531,129.587088
-58.306122,415.693878,123.440748
-58.306122,425.061224,112.027735
-58.306122,434.428571,103.813758
-58.306122,443.795918,94.240338
-58.306122,453.163265,84.719836
-58.306122,462.530612,82.204854
-58.306122,471.897959,97.102393
-58.306122,481.265306,106.738252
-58.306122,490.632653,112.429227
-58.306122,500.000000,116.256327
-46.510204,41.000000,127.574835
-46.510204,50.367347,129.433097
-46.510204,59.734694,131.893702
-46.510204,69.102041,135.236578
-46.510204,78.469388,138.734636
-46.510204,87.836735,141.751164
-46.510204,97.204082,143.653201
-46.510204,106.571429,149.099330
-46.510204,115.938776,137.361451
-46.510204,125.306122,115.169913
-46.510204,134.673469,94.280744
-46.510204,144.040816,78.647445
-46.510204,153.408163,67.021712
-46.510204,162.775510,62.661901
-46.510204,172.142857,73.394433
-46.510204,181.510204,78.282633
-46.510204,190.877551,78.695000
-46.510204,200.244898,75.797698
-46.510204,209.612245,62.397422
-46.510204,218.979592,41.143200
-46.510204,228.346939,62.543315
-46.510204,237.714286,83.311258
-46.510204,247.081633,87.855767
-46.510204,256.448980,90.580109
-46.510204,265.816327,89.883579
-46.510204,275.183673,103.494945
-46.510204,284.551020,115.782806
-46.510204,293.918367,123.763471
-46.510204,303.285714,113.951613
-46.510204,312.653061,60.102659
-46.510204,322.020408,112.751463
-46.510204,331.387755,113.820941
-46.510204,340.755102,113.584145
-46.510204,350.122449,117.179510
-46.510204,359.489796,125.091487
-46.510204,368.857143,135.532438
-46.510204,378.224490,141.869545
-46.510204,387.591837,140.788224
-46.510204,396.959184,135.788565
-46.510204,406.326531,128.901615
-46.510204,415.693878,119.389330
-46.510204,425.061224,102.275743
-46.510204,434.428571,74.908944
-46.510204,443.795918,68.317132
-46.510204,453.163265,75.391111
-46.510204,462.530612,72.383250
-46.510204,471.897959,94.225618
-46.510204,481.265306,104.951876
-46.510204,490.632653,111.085697
-46.510204,500.000000,115.331956
-34.714286,41.000000,127.956074
-34.714286,50.367347,129.228920
-34.714286,59.734694,134.535968
-34.714286,69.102041,142.614151
-34.714286,78.469388,150.572280
-34.714286,87.836735,162.528059
-34.714286,97.204082,162.592308
-34.714286,106.571429,142.129469
-34.714286,115.938776,125.883831
-34.714286,125.306122,112.643304
-34.714286,134.673469,100.630524
-34.714286,144.040816,90.195727
-34.714286,153.408163,81.543306
-34.714286,162.775510,74.282367
-34.714286,172.142857,68.642818
-34.714286,181.510204,65.239080
-34.714286,190.877551,63.300274
-34.714286,200.244898,61.441377
-34.714286,209.612245,53.055363
-34.714286,218.979592,60.152061
-34.714286,228.346939,75.679273
-34.714286,237.714286,74.261502
-34.714286,247.081633,65.516546
-34.714286,256.448980,88.182858
-34.714286,265.816327,94.875669
-34.714286,275.183673,94.691474
-34.714286,284.551020,95.138548
-34.714286,293.918367,77.220489
-34.714286,303.285714,100.846071
-34.714286,312.653061,95.890671
-34.714286,322.020408,95.173916
-34.714286,331.387755,66.891885
-34.714286,340.755102,52.557563
-34.714286,350.122449,58.627470
-34.714286,359.489796,67.992095
-34.714286,368.857143,84.082555
-34.714286,378.224490,123.376705
-34.714286,387.591837,132.194840
-34.714286,396.959184,131.571817
-34.714286,406.326531,126.402027
-34.714286,415.693878,116.649517
-34.714286,425.061224,95.839430
-34.714286,434.428571,55.436527
-34.714286,443.795918,55.140495
-34.714286,453.163265,75.623354
-34.714286,462.530612,86.900500
-34.714286,471.897959,97.818653
-34.714286,481.265306,104.698632
-34.714286,490.632653,110.052369
-34.714286,500.000000,114.698733
-22.918367,41.000000,122.203558
-22.918367,50.367347,128.978593
-22.918367,59.734694,141.268337
-22.918367,69.102041,157.435237
-22.918367,78.469388,179.260442
-22.918367,87.836735,181.140639
-22.918367,97.204082,249.028277
-22.918367,106.571429,154.123518
-22.918367,115.938776,125.941375
-22.918367,125.306122,112.697857
-22.918367,134.673469,102.491871
-22.918367,144.040816,92.759104
-22.918367,153.408163,81.264651
-22.918367,162.775510,61.614295
-22.918367,172.142857,42.387584
-22.918367,181.510204,36.823897
-22.918367,190.877551,38.335334
-22.918367,200.244898,31.327696
-22.918367,209.612245,29.873002
-22.918367,218.979592,64.147838
-22.918367,228.346939,77.724075
-22.918367,237.714286,81.276251
-22.918367,247.081633,81.008124
-22.918367,256.448980,83.714926
-22.918367,265.816327,85.953677
-22.918367,275.183673,79.742414
-22.918367,284.551020,56.758180
-22.918367,293.918367,77.162422
-22.918367,303.285714,90.753846
-22.918367,312.653061,59.512031
-22.918367,322.020408,68.275884
-22.918367,331.387755,85.909514
-22.918367,340.755102,85.241266
-22.918367,350.122449,88.597122
-22.918367,359.489796,96.881135
-22.918367,368.857143,110.851846
-22.918367,378.224490,126.952530
-22.918367,387.591837,133.737841
-22.918367,396.959184,132.569795
-22.918367,406.326531,126.623603
-22.918367,415.693878,118.466104
-22.918367,425.061224,108.492051
-22.918367,434.428571,97.888429
-22.918367,443.795918,92.184447
-22.918367,453.163265,90.084669
-22.918367,462.530612,93.696348
-22.918367,471.897959,96.495343
-22.918367,481.265306,98.674053
-22.918367,490.632653,106.287876
-22.918367,500.000000,114.069092
-11.122449,41.000000,90.594450
-11.122449,50.367347,118.166206
-11.122449,59.734694,144.619619
-11.122449,69.102041,205.055996
-11.122449,78.469388,172.779086
-11.122449,87.836735,173.106093
-11.122449,97.204082,155.774001
-11.122449,106.571429,137.738409
-11.122449,115.938776,123.390080
-11.122449,125.306122,112.637280
-11.122449,134.673469,103.159352
-11.122449,144.040816,93.361315
-11.122449,153.408163,82.124641
-11.122449,162.775510,68.753283
-11.122449,172.142857,57.870304
-11.122449,181.510204,52.835490
-11.122449,190.877551,50.804288
-11.122449,200.244898,49.268958
-11.122449,209.612245,54.273322
-11.122449,218.979592,69.381674
-11.122449,228.346939,80.024786
-11.122449,237.714286,84.744402
-11.122449,247.081633,83.527968
-11.122449,256.448980,54.224760
-11.122449,265.816327,56.986000
-11.122449,275.183673,80.617998
-11.122449,284.551020,74.616712
-11.122449,293.918367,81.375161
-11.122449,303.285714,90.749229
-11.122449,312.653061,88.344811
-11.122449,322.020408,85.805485
-11.122449,331.387755,96.873204
-11.122449,340.755102,103.331039
-11.122449,350.122449,110.379149
-11.122449,359.489796,121.347684
-11.122449,368.857143,134.564945
-11.122449,378.224490,145.546423
-11.122449,387.591837,150.594181
-11.122449,396.959184,142.525494
-11.122449,406.326531,125.897744
-11.122449,415.693878,114.521152
-11.122449,425.061224,107.668467
-11.122449,434.428571,106.754401
-11.122449,443.795918,107.046059
-11.122449,453.163265,104.263787
-11.122449,462.530612,94.294573
-11.122449,471.897959,79.488650
-11.122449,481.265306,92.062998
-11.122449,490.632653,105.567308
-11.122449,500.000000,115.720973
0.673469,41.000000,122.580141
0.673469,50.367347,132.197831
0.673469,59.734694,129.947843
0.673469,69.102041,179.642612
0.673469,78.469388,179.198544
0.673469,87.836735,181.719208
0.673469,97.204082,144.368498
0.673469,106.571429,134.003544
0.673469,115.938776,124.346244
0.673469,125.306122,113.660359
0.673469,134.673469,104.630931
0.673469,144.040816,94.123191
0.673469,153.408163,78.950544
0.673469,162.775510,68.654247
0.673469,172.142857,66.068930
0.673469,181.510204,64.296979
0.673469,190.877551,62.861297
0.673469,200.244898,63.813017
0.673469,209.612245,68.936605
0.673469,218.979592,76.375570
0.673469,228.346939,82.884438
0.673469,237.714286,86.813995
0.673469,247.081633,87.260083
0.673469,256.448980,83.398623
0.673469,265.816327,82.211120
0.673469,275.183673,77.445165
0.673469,284.551020,55.146991
0.673469,293.918367,80.717636
0.673469,303.285714,89.622589
0.673469,312.653061,93.340990
0.673469,322.020408,96.518641
0.673469,331.387755,101.224347
0.673469,340.755102,107.607001
0.673469,350.122449,116.920557
0.673469,359.489796,133.906039
0.673469,368.857143,155.085006
0.673469,378.224490,172.890105
0.673469,387.591837,205.487076
0.673469,396.959184,191.811052
0.673469,406.326531,99.135905
0.673469,415.693878,101.289050
0.673469,425.061224,66.580000
0.673469,434.428571,97.626948
0.673469,443.795918,113.390719
0.673469,453.163265,113.400264
0.673469,462.530612,101.589081
0.673469,471.897959,106.635431
0.673469,481.265306,113.715108
0.673469,490.632653,117.782244
0.673469,500.000000,121.245133
12.469388,41.000000,125.799935
12.469388,50.367347,126.224689
12.469388,59.734694,112.321992
12.469388,69.102041,146.314753
12.469388,78.469388,140.823940
12.469388,87.836735,129.225582
12.469388,97.204082,133.366627
12.469388,106.571429,164.143191
12.469388,115.938776,130.809504
12.469388,125.306122,111.709762
12.469388,134.673469,108.596996
12.469388,144.040816,120.889081
12.469388,153.408163,54.909825
12.469388,162.775510,16.158019
12.469388,172.142857,56.038406
12.469388,181.510204,56.692645
12.469388,190.877551,50.646596
12.469388,200.244898,45.366498
12.469388,209.612245,64.135118
12.469388,218.979592,77.474363
12.469388,228.346939,84.272385
12.469388,237.714286,88.206761
12.469388,247.081633,90.002350
12.469388,256.448980,89.966901
12.469388,265.816327,88.040933
12.469388,275.183673,80.716685
12.469388,284.551020,68.308167
12.469388,293.918367,70.882652
12.469388,303.285714,81.463582
12.469388,312.653061,85.417777
12.469388,322.020408,88.916913
12.469388,331.387755,93.784706
12.469388,340.755102,100.900713
12.469388,350.122449,110.891726
12.469388,359.489796,123.825054
12.469388,368.857143,137.419677
12.469388,378.224490,148.586734
12.469388,387.591837,154.259995
12.469388,396.959184,145.909239
12.469388,406.326531,128.454321
12.469388,415.693878,118.074564
12.469388,425.061224,113.475821
12.469388,434.428571,118.179280
12.469388,443.795918,125.505544
12.469388,453.163265,128.063873
12.469388,462.530612,128.438411
12.469388,471.897959,134.289788
12.469388,481.265306,132.339650
12.469388,490.632653,127.856282
12.469388,500.000000,126.548615
24.265306,41.000000,125.123282
24.265306,50.367347,124.030484
24.265306,59.734694,121.897136
24.265306,69.102041,113.245262
24.265306,78.469388,91.000127
24.265306,87.836735,90.414896
24.265306,97.204082,102.063026
24.265306,106.571429,119.876596
24.265306,115.938776,120.325300
24.265306,125.306122,112.786656
24.265306,134.673469,105.309813
24.265306,144.040816,95.479365
24.265306,153.408163,78.562471
24.265306,162.775510,64.559030
24.265306,172.142857,60.192542
24.265306,181.510204,58.778763
24.265306,190.877551,53.054374
24.265306,200.244898,49.144488
24.265306,209.612245,66.470572
24.265306,218.979592,77.858092
24.265306,228.346939,83.435963
24.265306,237.714286,87.633205
24.265306,247.081633,89.584614
24.265306,256.448980,89.348342
24.265306,265.816327,88.543409
24.265306,275.183673,86.032260
24.265306,284.551020,76.724903
24.265306,293.918367,55.237567
24.265306,303.285714,60.554275
24.265306,312.653061,65.587816
24.265306,322.020408,67.299785
24.265306,331.387755,72.512286
24.265306,340.755102,80.727479
24.265306,350.122449,96.207055
24.265306,359.489796,110.750918
24.265306,368.857143,119.868272
24.265306,378.224490,132.051019
24.265306,387.591837,138.841225
24.265306,396.959184,139.659712
24.265306,406.326531,137.299830
24.265306,415.693878,135.593500
24.265306,425.061224,136.677164
24.265306,434.428571,140.479452
24.265306,443.795918,144.352118
24.265306,453.163265,145.526652
24.265306,462.530612,143.955400
24.265306,471.897959,142.265925
24.265306,481.265306,138.836014
24.265306,490.632653,132.158756
24.265306,500.000000,127.031908
36.061224,41.000000,125.382883
36.061224,50.367347,122.852078
36.061224,59.734694,115.390722
36.061224,69.102041,92.613311
36.061224,78.469388,77.934996
36.061224,87.836735,69.732081
36.061224,97.204082,54.068114
36.061224,106.571429,99.821259
36.061224,115.938776,111.783488
36.061224,125.306122,110.663540
36.061224,134.673469,105.606262
36.061224,144.040816,98.617504
36.061224,153.408163,90.561965
36.061224,162.775510,83.313455
36.061224,172.142857,78.459362
36.061224,181.510204,75.673831
36.061224,190.877551,73.946054
36.061224,200.244898,73.771129
36.061224,209.612245,74.402174
36.061224,218.979592,68.938186
36.061224,228.346939,69.586457
36.061224,237.714286,82.067616
36.061224,247.081633,84.662593
36.061224,256.448980,75.387134
36.061224,265.816327,70.343282
36.061224,275.183673,86.835255
36.061224,284.551020,82.320540
36.061224,293.918367,64.375076
36.061224,303.285714,54.044339
36.061224,312.653061,50.524741
36.061224,322.020408,50.268979
36.061224,331.387755,55.882589
36.061224,340.755102,61.895183
36.061224,350.122449,88.276857
36.061224,359.489796,110.315197
36.061224,368.857143,109.450634
36.061224,378.224490,128.299774
36.061224,387.591837,137.776169
36.061224,396.959184,142.813689
36.061224,406.326531,146.413100
36.061224,415.693878,151.095960
36.061224,425.061224,158.532634
36.061224,434.428571,167.265298
36.061224,443.795918,172.148740
36.061224,453.163265,170.216118
36.061224,462.530612,163.439433
36.061224,471.897959,154.528918
36.061224,481.265306,143.246720
36.061224,490.632653,125.293163
36.061224,500.000000,107.156452
47.857143,41.000000,128.361522
47.857143,50.367347,129.097671
47.857143,59.734694,125.468386
47.857143,69.102041,118.345820
47.857143,78.469388,115.701271
47.857143,87.836735,108.733337
47.857143,97.204082,107.258664
47.857143,106.571429,112.527109
47.857143,115.938776,114.967171
47.857143,125.306122,113.213287
47.857143,134.673469,109.256426
47.857143,144.040816,104.311092
47.857143,153.408163,99.120225
47.857143,162.775510,94.360832
47.857143,172.142857,90.491413
47.857143,181.510204,87.356318
47.857143,190.877551,83.659391
47.857143,200.244898,75.766656
47.857143,209.612245,51.042736
47.857143,218.979592,70.820412
47.857143,228.346939,77.080675
47.857143,237.714286,43.950412
47.857143,247.081633,85.708163
47.857143,256.448980,80.611166
47.857143,265.816327,82.691269
47.857143,275.183673,95.198974
47.857143,284.551020,96.241224
47.857143,293.918367,91.587953
47.857143,303.285714,86.833757
47.857143,312.653061,85.081952
47.857143,322.020408,86.555483
47.857143,331.387755,91.179305
47.857143,340.755102,98.591482
47.857143,350.122449,109.013247
47.857143,359.489796,119.601419
47.857143,368.857143,128.834440
47.857143,378.224490,138.170322
47.857143,387.591837,145.970901
47.857143,396.959184,152.334384
47.857143,406.326531,158.634965
47.857143,415.693878,168.206734
47.857143,425.061224,187.083454
47.857143,434.428571,213.303528
47.857143,443.795918,220.151028
47.857143,453.163265,204.215572
47.857143,462.530612,184.736435
47.857143,471.897959,170.144236
47.857143,481.265306,150.839537
47.857143,490.632653,102.091785
47.857143,500.000000,2.617520
59.653061,41.000000,129.353581
59.653061,50.367347,140.359410
59.653061,59.734694,159.871010
59.653061,69.102041,178.164891
59.653061,78.469388,166.635349
59.653061,87.836735,148.169750
59.653061,97.204082,136.115958
59.653061,106.571429,128.828591
59.653061,115.938776,123.744270
59.653061,125.306122,119.240024
59.653061,134.673469,114.817136
59.653061,144.040816,110.437205
59.653061,153.408163,106.206542
59.653061,162.775510,102.295244
59.653061,172.142857,98.795489
59.653061,181.510204,95.361706
59.653061,190.877551,89.922580
59.653061,200.244898,69.872235
59.653061,209.612245,70.363625
59.653061,218.979592,92.191570
59.653061,228.346939,122.406307
59.653061,237.714286,109.934422
59.653061,247.081633,104.161782
59.653061,256.448980,107.675728
59.653061,265.816327,108.120909
59.653061,275.183673,104.925643
59.653061,284.551020,107.953815
59.653061,293.918367,108.253765
59.653061,303.285714,108.500332
59.653061,312.653061,110.124026
59.653061,322.020408,113.541086
59.653061,331.387755,118.751951
59.653061,340.755102,125.760356
59.653061,350.122449,134.310056
59.653061,359.489796,142.971014
59.653061,368.857143,150.372198
59.653061,378.224490,155.995371
59.653061,387.591837,161.965876
59.653061,396.959184,169.721627
59.653061,406.326531,174.799531
59.653061,415.693878,180.252977
59.653061,425.061224,209.047677
59.653061,434.428571,320.479748
59.653061,443.795918,323.460714
59.653061,453.163265,214.198682
59.653061,462.530612,171.169647
59.653061,471.897959,187.615249
59.653061,481.265306,161.497103
59.653061,490.632653,131.195989
59.653061,500.000000,100.246986
71.448980,41.000000,105.877351
71.448980,50.367347,124.319383
71.448980,59.734694,197.583690
71.448980,69.102041,343.398388
71.448980,78.469388,265.403808
71.448980,87.836735,178.296712
71.448980,97.204082,148.198796
71.448980,106.571429,138.897678
71.448980,115.938776,132.440022
71.448980,125.306122,126.154209
71.448980,134.673469,121.104558
71.448980,144.040816,116.747863
71.448980,153.408163,112.682459
71.448980,162.775510,108.812268
71.448980,172.142857,105.275861
71.448980,181.510204,102.170313
71.448980,190.877551,99.323486
71.448980,200.244898,97.219002
71.448980,209.612245,100.729790
71.448980,218.979592,113.235699
71.448980,228.346939,131.910547
71.448980,237.714286,130.684698
71.448980,247.081633,121.547749
71.448980,256.448980,132.200765
71.448980,265.816327,139.131806
71.448980,275.183673,111.223231
71.448980,284.551020,114.857405
71.448980,293.918367,119.797077
71.448980,303.285714,123.952325
71.448980,312.653061,129.799355
71.448980,322.020408,136.968193
71.448980,331.387755,144.563627
71.448980,340.755102,153.177372
71.448980,350.122449,165.407909
71.448980,359.489796,176.656875
71.448980,368.857143,180.189065
71.448980,378.224490,179.811059
71.448980,387.591837,184.161380
71.448980,396.959184,218.551205
71.448980,406.326531,216.738490
71.448980,415.693878,160.924448
71.448980,425.061224,165.996206
71.448980,434.428571,201.316163
71.448980,443.795918,230.840573
71.448980,453.163265,219.759495
71.448980,462.530612,162.901789
71.448980,471.897959,157.319232
71.448980,481.265306,157.712293
71.448980,490.632653,147.629698
71.448980,500.000000,137.527712
83.244898,41.000000,12.147403
83.244898,50.367347,44.419733
83.244898,59.734694,247.931919
83.244898,69.102041,305.458075
83.244898,78.469388,290.173527
83.244898,87.836735,239.264679
83.244898,97.204082,166.686117
83.244898,106.571429,145.697935
83.244898,115.938776,138.876947
83.244898,125.306122,132.430270
83.244898,134.673469,127.652655
83.244898,144.040816,123.782895
83.244898,153.408163,119.679333
83.244898,162.775510,115.000872
83.244898,172.142857,110.495567
83.244898,181.510204,107.079756
83.244898,190.877551,105.314822
83.244898,200.244898,105.906150
83.244898,209.612245,110.733116
83.244898,218.979592,126.775213
83.244898,228.346939,216.334881
83.244898,237.714286,176.569520
83.244898,247.081633,140.814788
83.244898,256.448980,141.718260
83.244898,265.816327,140.558858
83.244898,275.183673,130.182468
83.244898,284.551020,126.185268
83.244898,293.918367,128.010724
83.244898,303.285714,133.476190
83.244898,312.653061,145.483817
83.244898,322.020408,162.242363
83.244898,331.387755,174.719284
83.244898,340.755102,183.901224
83.244898,350.122449,195.820345
83.244898,359.489796,206.159772
83.244898,368.857143,192.652343
83.244898,378.224490,212.836275
83.244898,387.591837,196.092079
83.244898,396.959184,242.219730
83.244898,406.326531,285.515187
83.244898,415.693878,231.515512
83.244898,425.061224,175.077636
83.244898,434.428571,171.453742
83.244898,443.795918,196.278539
83.244898,453.163265,189.651129
83.244898,462.530612,128.519232
83.244898,471.897959,137.849413
83.244898,481.265306,152.091218
83.244898,490.632653,150.030069
83.244898,500.000000,145.172231
95.040816,41.000000,103.047471
95.040816,50.367347,120.730795
95.040816,59.734694,104.050110
95.040816,69.102041,195.117366
95.040816,78.469388,227.562088
95.040816,87.836735,259.354734
95.040816,97.204082,186.736944
95.040816,106.571429,150.777159
95.040816,115.938776,141.972830
95.040816,125.306122,138.504854
95.040816,134.673469,134.907612
95.040816,144.040816,134.292859
95.040816,153.408163,130.743685
95.040816,162.775510,122.787596
95.040816,172.142857,114.549131
95.040816,181.510204,109.161181
95.040816,190.877551,106.839812
95.040816,200.244898,107.174164
95.040816,209.612245,110.149830
95.040816,218.979592,115.735266
95.040816,228.346939,113.415372
95.040816,237.714286,87.033412
95.040816,247.081633,202.287664
95.040816,256.448980,174.646246
95.040816,265.816327,144.006766
95.040816,275.183673,143.857785
95.040816,284.551020,128.826589
95.040816,293.918367,128.004793
95.040816,303.285714,117.210098
95.040816,312.653061,137.271395
95.040816,322.020408,209.898006
95.040816,331.387755,224.404061
95.040816,340.755102,229.722847
95.040816,350.122449,250.193524
95.040816,359.489796,212.342482
95.040816,368.857143,182.117073
95.040816,378.224490,179.267692
95.040816,387.591837,108.923875
95.040816,396.959184,110.802647
95.040816,406.326531,197.482067
95.040816,415.693878,200.161634
95.040816,425.061224,181.977633
95.040816,434.428571,176.616041
95.040816,443.795918,176.117993
95.040816,453.163265,171.241443
95.040816,462.530612,161.190857
95.040816,471.897959,155.269626
95.040816,481.265306,153.100468
95.040816,490.632653,150.276422
95.040816,500.000000,146.864609
106.836735,41.000000,119.990633
106.836735,50.367347,84.016614
106.836735,59.734694,98.002757
106.836735,69.102041,182.560507
106.836735,78.469388,216.571331
106.836735,87.836735,208.282669
106.836735,97.204082,172.706502
106.836735,106.571429,133.640179
106.836735,115.938776,162.639147
106.836735,125.306122,134.123923
106.836735,134.673469,143.454785
106.836735,144.040816,158.898431
106.836735,153.408163,161.680356
106.836735,162.775510,135.676448
106.836735,172.142857,115.911882
106.836735,181.510204,107.300464
106.836735,190.877551,104.539148
106.836735,200.244898,104.833508
106.836735,209.612245,106.574848
106.836735,218.979592,108.655446
106.836735,228.346939,108.835740
106.836735,237.714286,113.551354
106.836735,247.081633,145.220706
106.836735,256.448980,137.973693
106.836735,265.816327,130.196616
106.836735,275.183673,133.167846
106.836735,284.551020,126.570890
106.836735,293.918367,140.552356
106.836735,303.285714,131.981120
106.836735,312.653061,151.367924
106.836735,322.020408,225.780501
106.836735,331.387755,330.060922
106.836735,340.755102,331.515486
106.836735,350.122449,293.335429
106.836735,359.489796,220.473552
106.836735,368.857143,189.355218
106.836735,378.224490,174.261091
106.836735,387.591837,158.952288
106.836735,396.959184,157.176735
106.836735,406.326531,168.541010
106.836735,415.693878,172.796302
106.836735,425.061224,171.041816
106.836735,434.428571,168.678140
106.836735,443.795918,166.614144
106.836735,453.163265,163.673467
106.836735,462.530612,159.702319
106.836735,471.897959,155.828842
106.836735,481.265306,152.557606
106.836735,490.632653,149.575105
106.836735,500.000000,146.737804
118.632653,41.000000,129.362578
118.632653,50.367347,128.626488
118.632653,59.734694,145.879082
118.632653,69.102041,193.814171
118.632653,78.469388,329.767207
118.632653,87.836735,367.762592
118.632653,97.204082,291.658106
118.632653,106.571429,164.191724
118.632653,115.938776,136.358544
118.632653,125.306122,122.752314
118.632653,134.673469,145.935881
118.632653,144.040816,164.725204
118.632653,153.408163,165.677955
118.632653,162.775510,120.832034
118.632653,172.142857,107.600072
118.632653,181.510204,99.355293
118.632653,190.877551,99.213159
118.632653,200.244898,101.950724
118.632653,209.612245,104.539444
118.632653,218.979592,104.887469
118.632653,228.346939,105.787155
118.632653,237.714286,108.701577
118.632653,247.081633,102.469372
118.632653,256.448980,7.304569
118.632653,265.816327,99.582408
118.632653,275.183673,109.694481
118.632653,284.551020,132.893958
118.632653,293.918367,211.824681
118.632653,303.285714,161.279204
118.632653,312.653061,166.583956
118.632653,322.020408,203.411571
118.632653,331.387755,248.278547
118.632653,340.755102,261.827809
118.632653,350.122449,243.184448
118.632653,359.489796,209.465787
118.632653,368.857143,185.903186
118.632653,378.224490,172.825964
118.632653,387.591837,165.264621
118.632653,396.959184,162.281734
118.632653,406.326531,162.498781
118.632653,415.693878,162.989737
118.632653,425.061224,162.514439
118.632653,434.428571,161.383329
118.632653,443.795918,159.877894
118.632653,453.163265,157.939975
118.632653,462.530612,155.582722
118.632653,471.897959,153.030400
118.632653,481.265306,150.495944
118.632653,490.632653,148.061695
118.632653,500.000000,145.763806
130.428571,41.000000,134.850284
130.428571,50.367347,141.690067
130.428571,59.734694,155.965295
130.428571,69.102041,184.998021
130.428571,78.469388,239.372318
130.428571,87.836735,246.219923
130.428571,97.204082,204.809135
130.428571,106.571429,159.197172
130.428571,115.938776,132.073201
130.428571,125.306122,119.512710
130.428571,134.673469,109.705034
130.428571,144.040816,99.201666
130.428571,153.408163,99.664035
130.428571,162.775510,94.633014
130.428571,172.142857,81.916528
130.428571,181.510204,88.462031
130.428571,190.877551,95.966440
130.428571,200.244898,104.371163
130.428571,209.612245,117.133619
130.428571,218.979592,101.585375
130.428571,228.346939,98.042980
130.428571,237.714286,101.885201
130.428571,247.081633,104.032610
130.428571,256.448980,103.852996
130.428571,265.816327,106.937846
130.428571,275.183673,102.711170
130.428571,284.551020,101.772317
130.428571,293.918367,133.532240
130.428571,303.285714,145.612440
130.428571,312.653061,153.330991
130.428571,322.020408,166.090173
130.428571,331.387755,178.281024
130.428571,340.755102,184.232002
130.428571,350.122449,186.178449
130.428571,359.489796,180.882939
130.428571,368.857143,172.848638
130.428571,378.224490,166.160545
130.428571,387.591837,161.619681
130.428571,396.959184,159.029332
130.428571,406.326531,157.814121
130.428571,415.693878,157.180815
130.428571,425.061224,156.554788
130.428571,434.428571,155.723011
130.428571,443.795918,154.639149
130.428571,453.163265,153.285588
130.428571,462.530612,151.681679
130.428571,471.897959,149.901625
130.428571,481.265306,148.040543
130.428571,490.632653,146.178124
130.428571,500.000000,144.373963
142.224490,41.000000,133.631411
142.224490,50.367347,138.711635
142.224490,59.734694,146.252176
142.224490,69.102041,156.189324
142.224490,78.469388,164.605697
142.224490,87.836735,162.387384
142.224490,97.204082,148.595968
142.224490,106.571429,130.805837
142.224490,115.938776,114.882218
142.224490,125.306122,100.082093
142.224490,134.673469,72.961771
142.224490,144.040816,35.317479
142.224490,153.408163,46.571179
142.224490,162.775510,68.230766
142.224490,172.142857,60.151958
142.224490,181.510204,81.326401
142.224490,190.877551,84.973199
142.224490,200.244898,80.471322
142.224490,209.612245,96.402452
142.224490,218.979592,96.767107
142.224490,228.346939,96.428504
142.224490,237.714286,98.550813
142.224490,247.081633,106.093455
142.224490,256.448980,144.488748
142.224490,265.816327,105.383306
142.224490,275.183673,105.349335
142.224490,284.551020,99.307095
142.224490,293.918367,39.006147
142.224490,303.285714,109.909695
142.224490,312.653061,162.538980
142.224490,322.020408,143.912549
142.224490,331.387755,127.456773
142.224490,340.755102,89.834931
142.224490,350.122449,144.828697
142.224490,359.489796,157.978760
142.224490,368.857143,159.199909
142.224490,378.224490,157.595817
142.224490,387.591837,155.687631
142.224490,396.959184,154.197816
142.224490,406.326531,153.193618
142.224490,415.693878,152.493129
142.224490,425.061224,151.881182
142.224490,434.428571,151.209443
142.224490,443.795918,150.400190
142.224490,453.163265,149.421593
142.224490,462.530612,148.275880
142.224490,471.897959,146.993829
142.224490,481.265306,145.623333
142.224490,490.632653,144.215852
142.224490,500.000000,142.818060
154.020408,41.000000,129.457177
154.020408,50.367347,131.868697
154.020408,59.734694,134.443472
154.020408,69.102041,136.271584
154.020408,78.469388,135.510683
154.020408,87.836735,130.150180
154.020408,97.204082,119.838817
154.020408,106.571429,106.356934
154.020408,115.938776,93.074439
154.020408,125.306122,83.021497
154.020408,134.673469,74.039719
154.020408,144.040816,63.202142
154.020408,153.408163,43.462350
154.020408,162.775510,60.157428
154.020408,172.142857,52.262485
154.020408,181.510204,58.165607
154.020408,190.877551,66.121909
154.020408,200.244898,71.351169
154.020408,209.612245,74.659945
154.020408,218.979592,74.246322
154.020408,228.346939,80.097466
154.020408,237.714286,89.279199
154.020408,247.081633,95.429288
154.020408,256.448980,100.231802
154.020408,265.816327,97.026758
154.020408,275.183673,96.821934
154.020408,284.551020,101.442888
154.020408,293.918367,105.382236
154.020408,303.285714,110.693818
154.020408,312.653061,118.670923
154.020408,322.020408,85.602388
154.020408,331.387755,110.252954
154.020408,340.755102,118.437218
154.020408,350.122449,135.186462
154.020408,359.489796,145.374756
154.020408,368.857143,148.997217
154.020408,378.224490,149.845102
154.020408,387.591837,149.668570
154.020408,396.959184,149.211946
154.020408,406.326531,148.746652
154.020408,415.693878,148.321075
154.020408,425.061224,147.895433
154.020408,434.428571,147.413709
154.020408,443.795918,146.833353
154.020408,453.163265,146.132364
154.020408,462.530612,145.308769
154.020408,471.897959,144.377614
154.020408,481.265306,143.365782
154.020408,490.632653,142.305746
154.020408,500.000000,141.230207
165.816327,41.000000,124.688697
165.816327,50.367347,125.114726
165.816327,59.734694,124.913528
165.816327,69.102041,123.390122
165.816327,78.469388,119.562900
165.816327,87.836735,112.320505
165.816327,97.204082,100.427108
165.816327,106.571429,81.848437
165.816327,115.938776,56.816839
165.816327,125.306122,49.385190
165.816327,134.673469,55.137053
165.816327,144.040816,62.526351
165.816327,153.408163,64.217068
165.816327,162.775510,62.693180
165.816327,172.142857,57.167212
165.816327,181.510204,51.767767
165.816327,190.877551,45.491591
165.816327,200.244898,31.765393
165.816327,209.612245,23.601149
165.816327,218.979592,39.457161
165.816327,228.346939,58.258738
165.816327,237.714286,77.245185
165.816327,247.081633,80.303821
165.816327,256.448980,73.714028
165.816327,265.816327,56.065012
165.816327,275.183673,54.294914
165.816327,284.551020,91.432815
165.816327,293.918367,104.910177
165.816327,303.285714,112.346301
165.816327,312.653061,115.405835
165.816327,322.020408,112.059270
165.816327,331.387755,118.259349
165.816327,340.755102,127.471380
165.816327,350.122449,134.167496
165.816327,359.489796,139.128216
165.816327,368.857143,142.135969
165.816327,378.224490,143.684829
165.816327,387.591837,144.374963
165.816327,396.959184,144.619443
165.816327,406.326531,144.645370
165.816327,415.693878,144.553541
165.816327,425.061224,144.373960
165.816327,434.428571,144.105243
165.816327,443.795918,143.737989
165.816327,453.163265,143.266323
165.816327,462.530612,142.692376
165.816327,471.897959,142.026894
165.816327,481.265306,141.287589
165.816327,490.632653,140.496360
165.816327,500.000000,139.676345
177.612245,41.000000,120.370973
177.612245,50.367347,119.568838
177.612245,59.734694,117.938948
177.612245,69.102041,114.984815
177.612245,78.469388,110.032513
177.612245,87.836735,102.143336
177.612245,97.204082,89.710641
177.612245,106.571429,69.227095
177.612245,115.938776,37.097565
177.612245,125.306122,5.621093
177.612245,134.673469,26.911885
177.612245,144.040816,44.737828
177.612245,153.408163,58.505343
177.612245,162.775510,29.623511
177.612245,172.142857,57.395926
177.612245,181.510204,57.545917
177.612245,190.877551,57.375099
177.612245,200.244898,58.321043
177.612245,209.612245,57.633778
177.612245,218.979592,61.908513
177.612245,228.346939,65.149800
177.612245,237.714286,65.692135
177.612245,247.081633,64.587824
177.612245,256.448980,56.321111
177.612245,265.816327,51.173873
177.612245,275.183673,67.147965
177.612245,284.551020,87.698391
177.612245,293.918367,100.989122
177.612245,303.285714,109.331887
177.612245,312.653061,114.808105
177.612245,322.020408,118.689410
177.612245,331.387755,122.738277
177.612245,340.755102,127.234803
177.612245,350.122449,131.361943
177.612245,359.489796,134.718765
177.612245,368.857143,137.191962
177.612245,378.224490,138.868876
177.612245,387.591837,139.941189
177.612245,396.959184,140.598878
177.612245,406.326531,140.982622
177.612245,415.693878,141.179456
177.612245,425.061224,141.235784
177.612245,434.428571,141.173264
177.612245,443.795918,141.001655
177.612245,453.163265,140.727294
177.612245,462.530612,140.357773
177.612245,471.897959,139.903872
177.612245,481.265306,139.379668
177.612245,490.632653,138.801577
177.612245,500.000000,138.186944
189.408163,41.000000,116.854558
189.408163,50.367347,115.386811
189.408163,59.734694,113.124080
189.408163,69.102041,109.729817
189.408163,78.469388,104.770420
189.408163,87.836735,97.681686
189.408163,97.204082,87.733203
189.408163,106.571429,74.310543
189.408163,115.938776,58.677177
189.408163,125.306122,45.331018
189.408163,134.673469,33.951260
189.408163,144.040816,52.800666
189.408163,153.408163,58.439416
189.408163,162.775510,55.779625
189.408163,172.142857,57.125588
189.408163,181.510204,59.304886
189.408163,190.877551,60.400690
189.408163,200.244898,61.612926
189.408163,209.612245,60.030195
189.408163,218.979592,57.887042
189.408163,228.346939,54.565960
189.408163,237.714286,42.597829
189.408163,247.081633,39.169213
189.408163,256.448980,43.031406
189.408163,265.816327,61.144409
189.408163,275.183673,75.987459
189.408163,284.551020,88.565512
189.408163,293.918367,98.827760
189.408163,303.285714,106.685790
189.408163,312.653061,112.663748
189.408163,322.020408,117.397099
189.408163,331.387755,121.454402
189.408163,340.755102,125.117114
189.408163,350.122449,128.370264
189.408163,359.489796,131.121566
189.408163,368.857143,133.327393
189.408163,378.224490,135.014303
189.408163,387.591837,136.258077
189.408163,396.959184,137.150318
189.408163,406.326531,137.773546
189.408163,415.693878,138.190577
189.408163,425.061224,138.444267
189.408163,434.428571,138.562129
189.408163,443.795918,138.562004
189.408163,453.163265,138.456862
189.408163,462.530612,138.258119
189.408163,471.897959,137.977490
189.408163,481.265306,137.627688
189.408163,490.632653,137.222315
189.408163,500.000000,136.775312
201.204082,41.000000,114.175631
201.204082,50.367347,112.418824
201.204082,59.734694,109.993145
201.204082,69.102041,106.696622
201.204082,78.469388,102.305157
201.204082,87.836735,96.602573
201.204082,97.204082,89.472940
201.204082,106.571429,81.140925
201.204082,115.938776,72.511404
201.204082,125.306122,65.111901
201.204082,134.673469,61.474838
201.204082,144.040816,60.711914
201.204082,153.408163,53.439727
201.204082,162.775510,35.283426
201.204082,172.142857,39.755340
201.204082,181.510204,38.108000
201.204082,190.877551,39.409516
201.204082,200.244898,51.030751
201.204082,209.612245,45.475758
201.204082,218.979592,24.103937
201.204082,228.346939,49.848546
201.204082,237.714286,40.411797
201.204082,247.081633,15.480077
201.204082,256.448980,32.175421
201.204082,265.816327,57.863102
201.204082,275.183673,76.147292
201.204082,284.551020,88.476673
201.204082,293.918367,97.699187
201.204082,303.285714,104.911030
201.204082,312.653061,110.662893
201.204082,322.020408,115.357040
201.204082,331.387755,119.302675
201.204082,340.755102,122.696471
201.204082,350.122449,125.626441
201.204082,359.489796,128.119165
201.204082,368.857143,130.189179
201.204082,378.224490,131.864074
201.204082,387.591837,133.187765
201.204082,396.959184,134.212730
201.204082,406.326531,134.990521
201.204082,415.693878,135.565490
201.204082,425.061224,135.972589
201.204082,434.428571,136.238076
201.204082,443.795918,136.381626
201.204082,453.163265,136.418682
201.204082,462.530612,136.362422
201.204082,471.897959,136.225091
201.204082,481.265306,136.018717
201.204082,490.632653,135.755315
201.204082,500.000000,135.446751
213.000000,41.000000,112.239417
213.000000,50.367347,110.425083
213.000000,59.734694,108.088779
213.000000,69.102041,105.125126
213.000000,78.469388,101.443761
213.000000,87.836735,97.003497
213.000000,97.204082,91.871864
213.000000,106.571429,86.303719
213.000000,115.938776,80.774460
213.000000,125.306122,75.826599
213.000000,134.673469,71.428778
213.000000,144.040816,65.209080
213.000000,153.408163,48.539301
213.000000,162.775510,20.346097
213.000000,172.142857,47.185402
213.000000,181.510204,49.597128
213.000000,190.877551,45.391064
213.000000,200.244898,7.970651
213.000000,209.612245,40.256142
213.000000,218.979592,54.291833
213.000000,228.346939,57.803263
213.000000,237.714286,53.664343
213.000000,247.081633,46.283605
213.000000,256.448980,52.865466
213.000000,265.816327,67.218737
213.000000,275.183673,79.902639
213.000000,284.551020,89.883363
213.000000,293.918367,97.751992
213.000000,303.285714,104.103407
213.000000,312.653061,109.328284
213.000000,322.020408,113.694709
213.000000,331.387755,117.397322
213.000000,340.755102,120.571408
213.000000,350.122449,123.301777
213.000000,359.489796,125.638684
213.000000,368.857143,127.616250
213.000000,378.224490,129.265662
213.000000,387.591837,130.620648
213.000000,396.959184,131.717218
213.000000,406.326531,132.590921
213.000000,415.693878,133.274147
213.000000,425.061224,133.794622
213.000000,434.428571,134.175201
213.000000,443.795918,134.434532
213.000000,453.163265,134.588102
213.000000,462.530612,134.649294
213.000000,471.897959,134.630219
213.000000,481.265306,134.542253
213.000000,490.632653,134.396299
213.000000,500.000000,134.202817
